{"mode":"mbgd","shape":[4,[8,"Relu"],[8,"Sigmoid"],[3,"Softmax"]],"rate":0.3,"scalem":[[6.1,3.2,3.95,1.3],[3.6000000000000005,2.4000000000000004,5.9,2.4]],"w":[null,[[0.13440594110265808,-0.5169971395482426,4.4140764803281485,4.91857561796592],[0.023351656529086176,0.14852869326519186,1.044402159393432,0.8366990242981114],[0.7519244307914509,-0.9331349002396685,0.5659219861762274,1.350175372480474],[-0.8573526075073332,1.930004438467286,-5.429272421405594,-5.934394035347976],[0.1551324400652957,0.1757462693757578,-1.280570520991118,-1.4315843858445672],[-0.4190041549528085,1.8623222464066325,-3.0573541765655388,-3.797642893576079],[0.42522730351828947,-2.4301380785480036,7.760711590696673,9.701166378720638],[0.13647527975344464,-0.26932313604800906,0.1471894969667242,-0.024208489890885004]],[[-0.5323062031991307,0.09510983034632658,-0.14765629410910514,-1.2477714458190408,-0.21966248688874754,-0.1804424807628103,-1.709797546384157,0.09360014232782504],[1.1029134965897816,0.23242321605494748,-0.547443453646486,-0.7324202477335952,-0.03707995301076226,-0.24985665451144914,1.5286817275339484,-0.24431860092085736],[0.2107930551925094,-0.2763857389905265,-0.5120009960712597,1.5857504798492765,0.8064614977940571,1.3301990198556526,-1.001640840689931,0.4123819667340975],[-0.525026547426026,0.023534720035899053,-0.17097013672328204,1.3657482948799609,0.6069781582532017,0.0782551535401465,-1.040740175137858,0.07026207354729286],[0.8432694419850302,0.17144200066475282,0.3461671644646489,-1.4714514168959467,-0.581439781451191,-0.639839665844091,0.9491654086464413,0.06623263218599043],[-0.571406033249566,0.21226119593277035,0.14792137036667424,2.2341486492477993,0.5351618098542249,1.463394779137984,-1.6765165415110124,-0.14852580728914358],[0.5945976118626491,0.04394696633409079,0.5098162542191095,-2.4249638827527447,-0.14349762472387498,-0.6172448687958902,0.9189306036645338,0.33270804971220025],[-0.8010143118325604,-0.13403407857132094,-0.5264015101969655,0.14488862768861485,0.3085536787681714,0.12165330136614988,-1.76665072389941,-0.2550341250784555]],[[-0.4346457055761303,-1.52179143029184,1.9263530315105508,1.368870776358581,-2.3392091152297927,3.3033691452727996,-3.6111358557895477,0.7415000661319328],[-1.1637649983803624,2.6146206888384182,-1.2318103251999195,-1.6214783728927715,2.3474844804682693,-2.3809945548059845,2.3086913805304365,-1.9108888015246912],[1.90522306931564,-0.8684944572645724,-1.0967071356374534,-0.31149057790458506,0.14549929276533247,-1.2295498690153308,0.8494432124081408,0.9986463440483193]]],"b":[null,[[-1.0304022984993118,-0.6839548759690207,-0.16532503695675807,-2.741696242687824,-0.46116918637498466,-2.1407434916930552,-1.7774151955363564,-0.02791592051692819]],[[0.28152915462433853,-2.1150594759303085,-0.9591980233921746,-0.534588604472179,-0.46074146603259614,-0.9553560600619522,0.5572068931679224,0.5288595549330646]],[[-0.742174927575912,-0.6115008110041876,0.9292548256048656]]]}