{"mode":"mbgd","shape":[4,[8,"Relu"],[8,"Sigmoid"],[3,"Softmax"]],"rate":0.3,"scalem":[[6.1,3.2,3.95,1.3],[3.6000000000000005,2.4000000000000004,5.9,2.4]],"w":[null,[[-0.031188614595758085,0.5330956242970405,-0.8120039377528615,-0.8605669426774574],[-0.3469142946250629,0.7659426158599175,0.1185180753118619,-0.25555677878827143],[-0.7347081633908177,1.639624526617789,-3.5676967411289033,-3.393769538021828],[0.2858874759835959,-0.23468764944346876,0.5204155370236745,-0.042748987999251684],[0.07994861382826134,0.6430213602193344,0.2514176894653964,-0.5248855940474294],[0.07825177482417194,1.7572944803518706,-4.377352145882389,-4.898935649667461],[-0.44566940980579656,-1.5149156773429622,7.506615806987016,8.245547502240685],[-0.4247608014483477,-0.10695553801257306,-0.5174323049046264,-0.08279313372172217]],[[-0.22405242950886933,0.10606359579837332,-0.5091138766626333,0.06754075101439878,0.4177421730524781,0.058727251290601766,-0.3163318737131938,-0.2860386358266922],[0.38415084297021873,0.12886357551433325,0.6973333824133073,0.1768992440448371,0.12246270930945156,1.1081124173050958,-2.3421625860004993,0.12792448490293662],[-0.1902431977801969,0.33875255454146846,0.9680132541490356,0.15228601890963553,0.5607123850933672,1.040990913416059,-1.2875274152432559,0.46960190410442326],[0.5322241202912159,0.494965112294677,1.0080625428643162,-0.32176266648725155,-0.2458198231665267,0.889612852448137,-0.9192438048286039,0.43470490602905354],[-0.3038243089132743,0.22005733922828385,-0.7996496376877872,0.34380427375197686,0.23272387828840582,-1.263902010571401,1.6736242505597405,0.18054322822931623],[-0.6126797830218819,-0.26017599979676764,-0.8997702134031403,-0.2840075737761273,-0.1810977799253987,-1.213225872202969,-1.4854025143740057,-0.08509298751305616],[0.12169899993162055,0.13155836219798256,1.0966425244193454,-0.006820262635490532,0.191863338087952,0.9394760864894555,-1.4533585620960614,0.06301929418822994],[-0.5262590634983905,0.22940163860063434,-0.44701430376264056,0.31083317953255546,-0.5684851418471815,-1.1373492263163547,-0.93429506662051,0.3859077166808915]],[[-0.68700941156823,1.8426287122434881,2.0286093703585437,1.3805168014970526,-2.9780486691517685,-2.434857745864389,1.8309731186799083,-1.9404933918043417],[-0.25630955156371216,-2.8526353979057464,-1.3069443638663218,-1.217698472675349,3.323170965825974,-0.3944722640447997,-1.8785385618709438,0.20638467571522565],[0.00796325042156553,0.5678836775876708,-0.014585247632644864,-0.723961161039961,-0.03121675023375898,2.3864000701220074,-0.3974951242142674,1.600089259409355]]],"b":[null,[[-0.7913720282814309,-1.3600062401199517,-1.4006034677565917,-0.2505678584152708,-0.837630232732089,-1.6989316532393233,-2.2898887917420545,-0.607148720766389]],[[-0.8290045366893765,0.22504152254880627,-0.9223797063989593,-1.1958661820713428,-0.5661199952209761,1.1460214295897122,-0.8136038988804956,0.2162592698620887]],[[-1.0646399249803884,0.7313429401583915,0.1704376473468347]]]}