{"mode":"mbgd","shape":[4,[8,"Relu"],[8,"Sigmoid"],[3,"Softmax"]],"rate":0.3,"scale":[[6.1,3.2,3.95,1.3],[3.6000000000000005,2.4000000000000004,5.9,2.4]],"w":[[[-0.5329192915049356,-0.890284936627977,7.136405939857896,7.76395809738611],[-0.6562635462037568,-1.0737249432165203,2.5799786012473387,2.651742615924081],[0.4123420374182832,1.9916681369764455,-2.6456557366808893,-2.819527162073012],[-0.4065735896675509,1.0952801719784127,-2.4616770325698427,-2.9222195406040603],[-0.4401194817883134,1.7484031861410094,-2.1889505659164294,-2.4539268052296372],[-0.3163068822156345,0.31307428452472835,0.5475009289635396,1.2344218585953508],[0.3003714936018512,0.8620630457574443,-3.8844265387990577,-4.375058863143608],[-0.3499365126242669,-0.23286460209333767,-0.41552001903840324,-0.6439335354310374]],[[-2.0315490121473894,-1.1926309287361423,0.7889005504918449,0.682713159540558,0.762745947686765,0.02758496233408807,1.8010779682768008,-0.4291267659840706],[1.091219473501054,0.6441852096248857,-0.8362156343458834,-0.5904163578671444,-0.562422185120078,-0.22873883687234972,-0.2212851574715028,-0.43134601100445386],[1.2625645002310364,1.3506100543250346,-0.8854143913784591,-0.5576978080233707,-0.629577777366573,0.17951078156671144,-0.24341874482650613,0.20687272632509465],[-0.4294051981825406,-1.2306778298407637,0.6680931710920238,0.5151893420996629,0.6500767103196511,0.14898726491109204,0.15865398845737444,0.48605615117373097],[-1.5001880813809405,-0.7649561254867687,-1.4022637581509865,-0.20536386953237606,-1.4087263754627888,-0.41582417686392087,-0.02176084800950376,0.13062031169236632],[-2.459208459244094,-1.5612499075561883,0.5622451863630897,0.57277195787474,0.36163230396441476,-0.2528427031012924,1.2507057990626156,0.1010283115372155],[2.162969497461765,1.5519010556100346,-0.48954159690379195,-0.4885973929627882,-0.6656494353836159,0.12805587259947068,-1.9971915521580201,-0.2706762357122947],[0.3427503559312455,0.13247923173063056,0.9187290433674795,0.6346343612089929,-0.06087080009527833,0.4020332794835216,0.06329817114511459,0.30081358510092165]],[[2.5112998444112047,-1.8381073296528947,-2.754562773224387,2.465684145402052,-2.7137509283449783,1.051659419607672,-1.7965517034762126,0.7983446015972209],[-3.297551827526392,1.9208587628385965,2.741599793985825,-1.152442462118263,-0.5442935638605488,-2.9210308784695527,3.3853904686041085,-0.31742655599309116],[0.892189523969618,0.6252590926396817,0.4482055360588991,-0.5723505987950511,2.6946974234117187,1.4470132750060745,-1.5526778087911248,-1.3482635890237986]]],"b":[[[-3.380406351447294,-0.13950014583431208,-1.143233318968362,0.07738401601988344,-0.4902313764318716,-1.3244596027879827,1.3582456509488772,-0.7861465546010372]],[[0.17243271545095737,0.809986415746252,0.4441916597800139,-0.817053136870787,1.4832353015045854,0.8635617213717904,-0.6981172805570603,-0.30629631227020426]],[[-0.20282972835477536,-0.137069455664975,0.3710965559694028]]]}