{"mode":"mbgd","shape":[4,[8,"Relu"],[8,"Sigmoid"],[3,"Softmax"]],"rate":0.3,"scale":[[6.1,3.2,3.95,1.3],[3.6000000000000005,2.4000000000000004,5.9,2.4]],"w":[[[-0.2132878084730218,-0.28955156353070927,0.09454186515631524,0.2576971920835902],[0.20100385017041209,0.46976794979319786,-0.4460068655065016,-0.9663896350540517],[-0.562757433643055,1.2570162084438923,-3.05186206825594,-2.590580638734273],[-0.5632860950734802,-1.4353841778004395,4.3803340347564745,4.361967304059373],[-0.10775446124391853,0.3059160994006469,-0.6346305826799705,-0.2355501160297066],[-0.9313623534293151,-0.697970570089409,2.645533984886984,2.591872058671481],[-0.655230240918554,1.323262575119814,-2.9703781832575835,-2.7297092043856366],[-1.3343541105120318,1.7320536341365864,-3.499140422979847,-2.778903500831161]],[[0.12471295292230491,0.2466368902519331,-0.6809587160282351,-2.075575820223158,0.10923906261061073,-1.4656929692975906,-0.48370524437799994,-0.31094914394710804],[0.16554953025227065,-0.28559514757074267,0.5878131647128719,-2.124549678561642,-0.15757530329344246,-1.0354918534613933,0.05355767393794514,0.822033167172699],[-0.02890678962783231,-0.0798106455998767,0.7595200710959309,1.5287237412247943,-0.23913853875369862,1.0417941396345871,0.4432128182682894,0.8026626125882858],[0.11221900233242478,0.36028281864934847,1.430452275306015,-1.1248422632623691,0.33630199906921543,-0.6676257336188463,0.8323637581033232,1.6359914093752843],[-0.1804438079446162,0.41274220523299426,-0.19515072784201337,-1.729933280015854,0.07004455195053931,-0.9828161034554712,-0.06726674259720225,-0.5662925917666839],[-0.21948657813605543,-0.10651551949987872,-1.6522970377391628,1.7058360012955203,0.15487993305060027,0.7562203461783964,-1.780318800864322,-1.4758110871834],[0.4834847966332908,-0.29684990105493675,-1.2438611155610204,1.4203833722859012,-0.6623630871765309,0.722488011309005,-1.324513726506474,-1.5103309692611513],[-0.06246099267080154,-0.12332001883280914,-0.6496291200742852,1.0546170987304877,-0.34287140921350223,0.7002084719343856,-0.6047491139973098,-0.6579005214595994]],[[0.46240880411759816,1.7663575991250295,0.411468583111259,3.1975185277584224,0.3910625438784957,-4.0978220632645765,-3.0559197169595365,-1.1063173100869885],[-2.38470862697736,-2.5438254663878865,1.5016683840602676,-1.7925131943642585,-1.8277505256216457,3.0528934862343524,2.348574405859872,1.4182930842359203],[2.1140593100538347,1.1506392061129382,-1.9110798913518727,-1.2031299953602541,1.5645071084408937,1.0726124038957907,1.1060823619052296,0.040295765669950176]]],"b":[[[-0.18737621061854562,-0.5389821894488943,-1.6296857789089045,-1.00903974381723,-0.10785467910491445,-1.0746430539626635,-2.1695306166566737,-1.9903992066050746]],[[1.0776565705181491,1.021013620018958,-0.6231031630050079,-0.8614199170202854,0.7898033230971995,0.763899959543406,0.7209276534710192,-0.25894294944102053]],[[0.6374285634951758,-1.375777852891246,-0.40089831366626155]]]}